{
  "sizes": [10, 30, 16, 3, 7],
  "layers": [
    {
      "0": {},
      "1": {},
      "2": {},
      "3": {},
      "4": {},
      "5": {},
      "6": {},
      "7": {},
      "8": {},
      "9": {}
    },
    {
      "0": {
        "bias": 14.640413284301758,
        "weights": {
          "0": 17.013063430786133,
          "1": -37.595237731933594,
          "2": 47.556358337402344,
          "3": -32.88309097290039,
          "4": -55.063018798828125,
          "5": -14.298539161682129,
          "6": 32.17958068847656,
          "7": -56.92249298095703,
          "8": -94.32014465332031,
          "9": 23.128570556640625
        }
      },
      "1": {
        "bias": 15.996725082397461,
        "weights": {
          "0": 10.802196502685547,
          "1": -31.936613082885742,
          "2": -32.65089416503906,
          "3": -2.223723888397217,
          "4": -42.720123291015625,
          "5": 58.36211395263672,
          "6": -32.12143325805664,
          "7": 3.6162309646606445,
          "8": -57.898624420166016,
          "9": 5.070821762084961
        }
      },
      "2": {
        "bias": -0.10588931292295456,
        "weights": {
          "0": -35.649871826171875,
          "1": 13.33724594116211,
          "2": 29.824283599853516,
          "3": -21.90439796447754,
          "4": -0.5851864814758301,
          "5": 69.49811553955078,
          "6": -27.485109329223633,
          "7": -15.318511962890625,
          "8": -37.8236198425293,
          "9": -15.608938217163086
        }
      },
      "3": {
        "bias": 8.194804191589355,
        "weights": {
          "0": -30.60634422302246,
          "1": -48.443748474121094,
          "2": -72.84160614013672,
          "3": 20.843421936035156,
          "4": 25.646188735961914,
          "5": 39.574440002441406,
          "6": -51.00659942626953,
          "7": 19.30391502380371,
          "8": 82.8946304321289,
          "9": -96.0974349975586
        }
      },
      "4": {
        "bias": -20.809419631958008,
        "weights": {
          "0": -44.642154693603516,
          "1": 12.975020408630371,
          "2": 18.10565757751465,
          "3": -31.49310302734375,
          "4": -18.579416275024414,
          "5": 35.22532653808594,
          "6": 50.01157760620117,
          "7": 61.26262283325195,
          "8": 69.00216674804688,
          "9": 16.208297729492188
        }
      },
      "5": {
        "bias": -0.49733462929725647,
        "weights": {
          "0": -3.481959104537964,
          "1": -4.13847017288208,
          "2": 0.7033699154853821,
          "3": -2.9660353660583496,
          "4": -4.034535884857178,
          "5": -1.1316665410995483,
          "6": -0.33433446288108826,
          "7": -4.394700050354004,
          "8": -5.345986366271973,
          "9": -0.11035174131393433
        }
      },
      "6": {
        "bias": -17.886728286743164,
        "weights": {
          "0": 77.00674438476562,
          "1": 56.81763458251953,
          "2": 31.241384506225586,
          "3": 58.19502639770508,
          "4": 56.12940216064453,
          "5": 34.23469543457031,
          "6": 2.7436039447784424,
          "7": -39.39704513549805,
          "8": -4.916182994842529,
          "9": 19.615957260131836
        }
      },
      "7": {
        "bias": -1.6150976419448853,
        "weights": {
          "0": -2.3207895755767822,
          "1": -1.9549342393875122,
          "2": 2.2632534503936768,
          "3": -3.175706148147583,
          "4": -3.5480258464813232,
          "5": -1.1480352878570557,
          "6": -0.6926334500312805,
          "7": -2.473731279373169,
          "8": -4.162050724029541,
          "9": 0.549946129322052
        }
      },
      "8": {
        "bias": -5.354822158813477,
        "weights": {
          "0": 2.0550148487091064,
          "1": 1.9403516054153442,
          "2": 0.9121463298797607,
          "3": -1.349857211112976,
          "4": 0.535291314125061,
          "5": 3.4537267684936523,
          "6": -1.2765134572982788,
          "7": 10.200101852416992,
          "8": -4.581104278564453,
          "9": 12.131612777709961
        }
      },
      "9": {
        "bias": 14.952221870422363,
        "weights": {
          "0": -2.3143975734710693,
          "1": -35.64633560180664,
          "2": -4.9425554275512695,
          "3": -23.462963104248047,
          "4": -36.8682861328125,
          "5": -8.008706092834473,
          "6": 18.36478614807129,
          "7": -18.457836151123047,
          "8": -25.965076446533203,
          "9": 5.960679054260254
        }
      },
      "10": {
        "bias": -22.872201919555664,
        "weights": {
          "0": 22.166860580444336,
          "1": 44.49421691894531,
          "2": 30.401315689086914,
          "3": 6.6269001960754395,
          "4": -3.9659886360168457,
          "5": 11.620166778564453,
          "6": 52.71973419189453,
          "7": 22.675220489501953,
          "8": -6.374338150024414,
          "9": 18.58252716064453
        }
      },
      "11": {
        "bias": -8.736739158630371,
        "weights": {
          "0": 7.531986236572266,
          "1": 6.964123249053955,
          "2": 20.675678253173828,
          "3": 0.3747415840625763,
          "4": 16.182641983032227,
          "5": 1.7462271451950073,
          "6": 23.45708656311035,
          "7": 39.12129592895508,
          "8": 10.5308256149292,
          "9": 6.393455505371094
        }
      },
      "12": {
        "bias": 10.68469524383545,
        "weights": {
          "0": -11.109821319580078,
          "1": 13.937688827514648,
          "2": -33.301170349121094,
          "3": 15.408880233764648,
          "4": -25.251924514770508,
          "5": -80.1521224975586,
          "6": -16.161334991455078,
          "7": -92.73267364501953,
          "8": 50.20480728149414,
          "9": -101.06974792480469
        }
      },
      "13": {
        "bias": 40.82692337036133,
        "weights": {
          "0": -19.62599754333496,
          "1": 18.310575485229492,
          "2": 32.73033905029297,
          "3": -78.33979797363281,
          "4": -77.02763366699219,
          "5": -41.84488296508789,
          "6": -2.3404388427734375,
          "7": 35.01214599609375,
          "8": -21.99612045288086,
          "9": 30.856645584106445
        }
      },
      "14": {
        "bias": -22.610395431518555,
        "weights": {
          "0": 24.2569580078125,
          "1": -15.820183753967285,
          "2": 19.47511100769043,
          "3": 35.335933685302734,
          "4": 34.96495819091797,
          "5": 3.100388288497925,
          "6": -31.867666244506836,
          "7": 29.271923065185547,
          "8": 14.30267333984375,
          "9": 71.99896240234375
        }
      },
      "15": {
        "bias": 16.88880157470703,
        "weights": {
          "0": 16.787248611450195,
          "1": -11.841609954833984,
          "2": -35.751163482666016,
          "3": -19.9357852935791,
          "4": -31.6722354888916,
          "5": 12.152251243591309,
          "6": -18.963401794433594,
          "7": -38.12247085571289,
          "8": -38.527313232421875,
          "9": -42.77287673950195
        }
      },
      "16": {
        "bias": 2.0676865577697754,
        "weights": {
          "0": -10.356287956237793,
          "1": -10.197235107421875,
          "2": 14.296279907226562,
          "3": -11.80967903137207,
          "4": -10.58481216430664,
          "5": -5.776437759399414,
          "6": 3.629908800125122,
          "7": -14.52896785736084,
          "8": -21.333459854125977,
          "9": 0.0024582070764154196
        }
      },
      "17": {
        "bias": 16.655363082885742,
        "weights": {
          "0": 0.9508479237556458,
          "1": 4.741250991821289,
          "2": 2.4845902919769287,
          "3": 19.30067253112793,
          "4": 2.720838785171509,
          "5": -54.45194625854492,
          "6": 8.265288352966309,
          "7": -87.64813995361328,
          "8": -12.160755157470703,
          "9": -85.139404296875
        }
      },
      "18": {
        "bias": 14.932082176208496,
        "weights": {
          "0": 30.959020614624023,
          "1": -33.256874084472656,
          "2": -26.5314884185791,
          "3": -5.714386940002441,
          "4": -16.613710403442383,
          "5": 8.662450790405273,
          "6": 2.6203835010528564,
          "7": -59.67302703857422,
          "8": -25.228374481201172,
          "9": -67.45296478271484
        }
      },
      "19": {
        "bias": -41.34158706665039,
        "weights": {
          "0": 89.52088165283203,
          "1": -0.16771197319030762,
          "2": 10.329977989196777,
          "3": 40.779640197753906,
          "4": 57.64999771118164,
          "5": 37.93526840209961,
          "6": 36.019996643066406,
          "7": 42.673824310302734,
          "8": 31.704187393188477,
          "9": 28.610157012939453
        }
      },
      "20": {
        "bias": 16.06043243408203,
        "weights": {
          "0": -30.203134536743164,
          "1": -34.60309600830078,
          "2": -31.12378692626953,
          "3": -20.738813400268555,
          "4": -29.50288200378418,
          "5": 5.668443202972412,
          "6": -25.805856704711914,
          "7": 7.530752182006836,
          "8": -24.451459884643555,
          "9": 1.4250692129135132
        }
      },
      "21": {
        "bias": 7.262760639190674,
        "weights": {
          "0": -111.29776000976562,
          "1": 28.614646911621094,
          "2": -15.142887115478516,
          "3": 60.5185661315918,
          "4": 80.4737319946289,
          "5": -78.2643814086914,
          "6": 11.13036823272705,
          "7": -4.742545127868652,
          "8": -0.6518093347549438,
          "9": -81.9005126953125
        }
      },
      "22": {
        "bias": -0.6640363931655884,
        "weights": {
          "0": -6.1577229499816895,
          "1": -4.1215314865112305,
          "2": 10.240140914916992,
          "3": -6.742056369781494,
          "4": -7.53048038482666,
          "5": -2.384847402572632,
          "6": 3.766840696334839,
          "7": -8.291377067565918,
          "8": -11.28906536102295,
          "9": -1.439841866493225
        }
      },
      "23": {
        "bias": 37.01544189453125,
        "weights": {
          "0": 9.345060348510742,
          "1": -12.735554695129395,
          "2": -42.17007064819336,
          "3": -6.404971122741699,
          "4": 10.754934310913086,
          "5": -29.380207061767578,
          "6": -48.03914260864258,
          "7": -3.342589855194092,
          "8": -0.5058810710906982,
          "9": -66.96361541748047
        }
      },
      "24": {
        "bias": -20.409427642822266,
        "weights": {
          "0": 32.081058502197266,
          "1": 41.35497283935547,
          "2": 22.04827880859375,
          "3": 14.672733306884766,
          "4": -32.68275451660156,
          "5": 26.40877342224121,
          "6": 43.17278289794922,
          "7": 39.54510498046875,
          "8": -26.785079956054688,
          "9": 14.416570663452148
        }
      },
      "25": {
        "bias": -1.245180368423462,
        "weights": {
          "0": -2.3286540508270264,
          "1": -2.8870255947113037,
          "2": -0.5520616173744202,
          "3": -2.12660813331604,
          "4": -2.9590814113616943,
          "5": -1.1032063961029053,
          "6": -0.92330002784729,
          "7": -2.0867154598236084,
          "8": -2.2452199459075928,
          "9": -0.015548788011074066
        }
      },
      "26": {
        "bias": 18.434640884399414,
        "weights": {
          "0": -8.619129180908203,
          "1": -65.52684020996094,
          "2": -44.91741943359375,
          "3": -27.651323318481445,
          "4": -54.70206069946289,
          "5": -20.481285095214844,
          "6": -69.45169067382812,
          "7": 43.89300537109375,
          "8": 3.5677006244659424,
          "9": 17.764245986938477
        }
      },
      "27": {
        "bias": -13.159692764282227,
        "weights": {
          "0": 0.8388010859489441,
          "1": -31.078516006469727,
          "2": 26.66340446472168,
          "3": -8.83989429473877,
          "4": -19.71934700012207,
          "5": -27.566232681274414,
          "6": 84.35150146484375,
          "7": 50.35441207885742,
          "8": 61.43395233154297,
          "9": 2.93163800239563
        }
      },
      "28": {
        "bias": 0.738644540309906,
        "weights": {
          "0": -6.141767501831055,
          "1": -7.3277153968811035,
          "2": 0.007638287730515003,
          "3": -4.420224189758301,
          "4": -7.065765857696533,
          "5": 2.110184907913208,
          "6": 7.194972515106201,
          "7": -8.013431549072266,
          "8": -9.770492553710938,
          "9": -3.5660314559936523
        }
      },
      "29": {
        "bias": -32.61499786376953,
        "weights": {
          "0": 49.7479362487793,
          "1": 1.129248857498169,
          "2": -12.465574264526367,
          "3": 50.25404739379883,
          "4": 68.42854309082031,
          "5": 61.82251739501953,
          "6": 41.48456573486328,
          "7": -9.950155258178711,
          "8": 48.21682357788086,
          "9": 6.203753471374512
        }
      }
    },
    {
      "0": {
        "bias": 4.711491107940674,
        "weights": {
          "0": -2.808544397354126,
          "1": 7.465299129486084,
          "2": 31.816680908203125,
          "3": -1.0103398561477661,
          "4": -13.966479301452637,
          "5": 1.3069788217544556,
          "6": -6.634274959564209,
          "7": 1.4370267391204834,
          "8": 2.1658098697662354,
          "9": 2.491847515106201,
          "10": -3.8636324405670166,
          "11": -7.723897457122803,
          "12": -8.554086685180664,
          "13": 15.624505043029785,
          "14": 26.23456382751465,
          "15": 1.8907042741775513,
          "16": 2.8406620025634766,
          "17": -13.841843605041504,
          "18": -14.172175407409668,
          "19": 3.7893097400665283,
          "20": 7.449129104614258,
          "21": 7.332204818725586,
          "22": 0.9595144391059875,
          "23": -17.431962966918945,
          "24": 8.507131576538086,
          "25": 0.9083704352378845,
          "26": 17.922752380371094,
          "27": -14.73946475982666,
          "28": -0.23720568418502808,
          "29": -5.834949493408203
        }
      },
      "1": {
        "bias": -1.5202418565750122,
        "weights": {
          "0": -0.9465548396110535,
          "1": -1.200714349746704,
          "2": 2.183931350708008,
          "3": -4.1170334815979,
          "4": -0.5945965647697449,
          "5": -0.7578573226928711,
          "6": 3.311383008956909,
          "7": -0.36478695273399353,
          "8": 1.8562476634979248,
          "9": -2.844714879989624,
          "10": 2.6187312602996826,
          "11": 1.793247938156128,
          "12": -2.950338840484619,
          "13": -2.591010093688965,
          "14": -5.274420261383057,
          "15": -5.439453601837158,
          "16": -2.2221546173095703,
          "17": -6.05221700668335,
          "18": -4.43628454208374,
          "19": 6.72410249710083,
          "20": -2.5454277992248535,
          "21": -6.190434455871582,
          "22": -1.8854248523712158,
          "23": -10.226067543029785,
          "24": 3.049670696258545,
          "25": -0.4994989335536957,
          "26": -1.7780951261520386,
          "27": -9.078126907348633,
          "28": -0.8059544563293457,
          "29": 6.6385369300842285
        }
      },
      "2": {
        "bias": 10.252724647521973,
        "weights": {
          "0": 0.9192849397659302,
          "1": 4.1716485023498535,
          "2": 7.693299770355225,
          "3": 15.782824516296387,
          "4": -1.6537795066833496,
          "5": 1.7064822912216187,
          "6": 9.338754653930664,
          "7": 1.165738582611084,
          "8": 0.3147158920764923,
          "9": -1.363499641418457,
          "10": -10.72845458984375,
          "11": -13.945250511169434,
          "12": 8.089337348937988,
          "13": 20.946910858154297,
          "14": -19.167945861816406,
          "15": 1.1668798923492432,
          "16": 3.2307212352752686,
          "17": 5.0674872398376465,
          "18": -2.860888719558716,
          "19": 3.327725410461426,
          "20": -2.3397321701049805,
          "21": 14.18136978149414,
          "22": 2.2022366523742676,
          "23": 27.067472457885742,
          "24": -6.963067054748535,
          "25": 0.9517491459846497,
          "26": -11.240389823913574,
          "27": -2.4407877922058105,
          "28": 2.603346586227417,
          "29": 1.1571385860443115
        }
      },
      "3": {
        "bias": 1.1142076253890991,
        "weights": {
          "0": -11.61601734161377,
          "1": -3.607832670211792,
          "2": -3.135969877243042,
          "3": -7.753560543060303,
          "4": -32.70557403564453,
          "5": -1.1476426124572754,
          "6": 1.9233487844467163,
          "7": -1.418359637260437,
          "8": -6.292585372924805,
          "9": -1.435057282447815,
          "10": -3.284274101257324,
          "11": 2.978631019592285,
          "12": -21.504459381103516,
          "13": 6.801069259643555,
          "14": -1.1743899583816528,
          "15": -4.181313991546631,
          "16": -5.454568862915039,
          "17": -3.336209774017334,
          "18": -8.62649154663086,
          "19": 24.73560905456543,
          "20": -6.528130054473877,
          "21": -22.292177200317383,
          "22": -2.9417576789855957,
          "23": 25.12429428100586,
          "24": -16.167926788330078,
          "25": -1.0172724723815918,
          "26": -23.81008529663086,
          "27": -13.502389907836914,
          "28": -1.7731351852416992,
          "29": 13.270547866821289
        }
      },
      "4": {
        "bias": -8.501694679260254,
        "weights": {
          "0": -19.272863388061523,
          "1": 2.0387415885925293,
          "2": 8.32763671875,
          "3": 30.597177505493164,
          "4": 1.2330973148345947,
          "5": -0.2541395127773285,
          "6": 3.279439926147461,
          "7": -1.3661389350891113,
          "8": -1.3274362087249756,
          "9": -4.5451884269714355,
          "10": -11.288423538208008,
          "11": -7.220917701721191,
          "12": 27.097618103027344,
          "13": -14.367156028747559,
          "14": 17.963600158691406,
          "15": 6.54796028137207,
          "16": -4.657904148101807,
          "17": 18.902694702148438,
          "18": 14.863174438476562,
          "19": 12.715340614318848,
          "20": 0.9292800426483154,
          "21": 28.74767303466797,
          "22": -2.168503522872925,
          "23": 0.5914499163627625,
          "24": -16.09770393371582,
          "25": -0.3558163642883301,
          "26": 9.47917652130127,
          "27": -8.515751838684082,
          "28": 0.41541728377342224,
          "29": 21.607467651367188
        }
      },
      "5": {
        "bias": -3.613206148147583,
        "weights": {
          "0": -4.155752182006836,
          "1": -2.06573224067688,
          "2": -0.7472958564758301,
          "3": -5.875201225280762,
          "4": -0.0893692597746849,
          "5": -0.6951768398284912,
          "6": 2.080475091934204,
          "7": -0.30348074436187744,
          "8": -0.0886140987277031,
          "9": -1.8080955743789673,
          "10": -1.7617523670196533,
          "11": -0.4746621251106262,
          "12": -3.4025237560272217,
          "13": -4.10921049118042,
          "14": -1.0862064361572266,
          "15": -3.281252384185791,
          "16": -0.8949720859527588,
          "17": -2.78568434715271,
          "18": -3.0164332389831543,
          "19": 2.7684333324432373,
          "20": -2.12599778175354,
          "21": -3.1666598320007324,
          "22": -0.6924906373023987,
          "23": -6.204231262207031,
          "24": -1.5310558080673218,
          "25": -0.812128484249115,
          "26": -2.4036331176757812,
          "27": -3.5186541080474854,
          "28": -0.8649513721466064,
          "29": 2.505624771118164
        }
      },
      "6": {
        "bias": 2.1424965858459473,
        "weights": {
          "0": -25.206933975219727,
          "1": -7.186836242675781,
          "2": -5.0534796714782715,
          "3": 19.644956588745117,
          "4": 19.674280166625977,
          "5": -2.7787399291992188,
          "6": -0.08190973848104477,
          "7": -2.596468210220337,
          "8": -0.26415398716926575,
          "9": -5.728384017944336,
          "10": 2.9294722080230713,
          "11": 22.92511558532715,
          "12": -0.11595818400382996,
          "13": 31.322298049926758,
          "14": -19.38286590576172,
          "15": -4.592513561248779,
          "16": -8.42379379272461,
          "17": -18.473161697387695,
          "18": -12.67617416381836,
          "19": -10.43843936920166,
          "20": 1.1565519571304321,
          "21": -26.89055633544922,
          "22": -5.049343109130859,
          "23": -14.226300239562988,
          "24": -0.26641348004341125,
          "25": -1.6775060892105103,
          "26": -6.375654220581055,
          "27": -3.1287760734558105,
          "28": -2.9426910877227783,
          "29": -7.7904052734375
        }
      },
      "7": {
        "bias": -3.0524230003356934,
        "weights": {
          "0": 17.629776000976562,
          "1": -0.07845774292945862,
          "2": 0.3617369830608368,
          "3": -13.090057373046875,
          "4": -0.954674243927002,
          "5": -0.5830763578414917,
          "6": 6.329124450683594,
          "7": -0.2552330791950226,
          "8": 0.5999220013618469,
          "9": -4.432231426239014,
          "10": 11.590476036071777,
          "11": 13.46567440032959,
          "12": -2.6716275215148926,
          "13": -14.777265548706055,
          "14": 9.850688934326172,
          "15": 0.32911011576652527,
          "16": 2.3928890228271484,
          "17": -1.4321441650390625,
          "18": 0.9686010479927063,
          "19": 6.850733757019043,
          "20": -2.5148794651031494,
          "21": 0.5708428025245667,
          "22": 0.6959450840950012,
          "23": -2.953899621963501,
          "24": 5.286848545074463,
          "25": -0.8058571815490723,
          "26": -9.691195487976074,
          "27": -5.14623498916626,
          "28": -0.6241430044174194,
          "29": 3.459294319152832
        }
      },
      "8": {
        "bias": -11.260047912597656,
        "weights": {
          "0": 8.511367797851562,
          "1": 3.8362793922424316,
          "2": -3.9859960079193115,
          "3": 9.3554105758667,
          "4": 20.34383201599121,
          "5": 1.179497241973877,
          "6": -34.82857131958008,
          "7": 0.5729607939720154,
          "8": 1.3294003009796143,
          "9": 5.008162021636963,
          "10": -2.773728609085083,
          "11": 5.708413124084473,
          "12": -4.69006872177124,
          "13": 18.62790870666504,
          "14": 16.46749496459961,
          "15": 0.9773900508880615,
          "16": 5.25059175491333,
          "17": 3.3252663612365723,
          "18": 4.0810346603393555,
          "19": -12.886615753173828,
          "20": 4.2296833992004395,
          "21": 18.86211585998535,
          "22": 3.4861812591552734,
          "23": -36.92585372924805,
          "24": 6.399731636047363,
          "25": 0.7744194865226746,
          "26": 10.324976921081543,
          "27": 9.674348831176758,
          "28": 3.4868807792663574,
          "29": -12.410832405090332
        }
      },
      "9": {
        "bias": -23.92711639404297,
        "weights": {
          "0": -19.643169403076172,
          "1": -14.392985343933105,
          "2": -6.827065467834473,
          "3": -32.742191314697266,
          "4": 33.078304290771484,
          "5": -4.177685737609863,
          "6": 4.710231781005859,
          "7": -2.8930680751800537,
          "8": 8.26771354675293,
          "9": -20.033870697021484,
          "10": 24.84468650817871,
          "11": 6.684564590454102,
          "12": -10.704214096069336,
          "13": -19.415437698364258,
          "14": 10.096625328063965,
          "15": -27.04769515991211,
          "16": -12.824270248413086,
          "17": -18.65355110168457,
          "18": -10.76379680633545,
          "19": 15.693893432617188,
          "20": -13.42837142944336,
          "21": -8.22035026550293,
          "22": -8.090065002441406,
          "23": 6.830772876739502,
          "24": 24.82732582092285,
          "25": -2.8459436893463135,
          "26": -34.54555130004883,
          "27": -11.983097076416016,
          "28": -8.577603340148926,
          "29": 12.70753002166748
        }
      },
      "10": {
        "bias": -19.742399215698242,
        "weights": {
          "0": 1.7290456295013428,
          "1": -6.192328929901123,
          "2": 5.762935638427734,
          "3": -3.9859471321105957,
          "4": 17.617908477783203,
          "5": -3.0123627185821533,
          "6": 12.72421646118164,
          "7": -2.1110153198242188,
          "8": -0.8266641497612,
          "9": -4.891875267028809,
          "10": 18.970943450927734,
          "11": 8.264829635620117,
          "12": -15.450164794921875,
          "13": 2.9249184131622314,
          "14": 4.799224853515625,
          "15": -20.429275512695312,
          "16": -3.5537993907928467,
          "17": -14.351539611816406,
          "18": -5.856439590454102,
          "19": 19.369081497192383,
          "20": -12.892616271972656,
          "21": -33.126976013183594,
          "22": -1.5532761812210083,
          "23": -18.533405303955078,
          "24": 18.97660255432129,
          "25": -2.476557493209839,
          "26": -11.38284683227539,
          "27": 5.876532077789307,
          "28": -2.5495386123657227,
          "29": 16.087303161621094
        }
      },
      "11": {
        "bias": -9.429816246032715,
        "weights": {
          "0": 1.3842175006866455,
          "1": -22.8437442779541,
          "2": -3.7350988388061523,
          "3": -12.257035255432129,
          "4": 0.7689608931541443,
          "5": -0.9593299627304077,
          "6": 6.724437713623047,
          "7": -0.9402933120727539,
          "8": -1.7731826305389404,
          "9": -3.3210954666137695,
          "10": -13.947320938110352,
          "11": -4.915347099304199,
          "12": 37.76649856567383,
          "13": 1.914891242980957,
          "14": 12.489683151245117,
          "15": -6.57003927230835,
          "16": 3.0982680320739746,
          "17": 16.024986267089844,
          "18": 0.041347235441207886,
          "19": -17.5294189453125,
          "20": -5.357208728790283,
          "21": 7.916656494140625,
          "22": -0.03249732404947281,
          "23": 14.375819206237793,
          "24": -13.914617538452148,
          "25": -0.6560884118080139,
          "26": -3.8601372241973877,
          "27": -2.801058530807495,
          "28": -2.1028566360473633,
          "29": -13.685376167297363
        }
      },
      "12": {
        "bias": -16.07297134399414,
        "weights": {
          "0": 1.2941412925720215,
          "1": 14.493678092956543,
          "2": 18.502079010009766,
          "3": 3.5134103298187256,
          "4": -17.591154098510742,
          "5": 0.20266841351985931,
          "6": 17.165151596069336,
          "7": -0.1432904750108719,
          "8": -3.5094408988952637,
          "9": 2.6109814643859863,
          "10": -0.15407636761665344,
          "11": -5.236315727233887,
          "12": 15.724879264831543,
          "13": -7.888153553009033,
          "14": -22.540584564208984,
          "15": 19.757095336914062,
          "16": 1.868194580078125,
          "17": 12.653535842895508,
          "18": 26.04868507385254,
          "19": -4.994450092315674,
          "20": -7.050689220428467,
          "21": 16.42324447631836,
          "22": 1.531690239906311,
          "23": -10.316571235656738,
          "24": 7.461208343505859,
          "25": -0.3018428087234497,
          "26": -16.726558685302734,
          "27": -25.545604705810547,
          "28": 1.946596622467041,
          "29": 2.903200387954712
        }
      },
      "13": {
        "bias": 23.534547805786133,
        "weights": {
          "0": -0.10798129439353943,
          "1": -0.35387322306632996,
          "2": 2.9704933166503906,
          "3": -2.482733964920044,
          "4": 6.101441860198975,
          "5": 0.30938267707824707,
          "6": 14.653481483459473,
          "7": 0.7595961093902588,
          "8": 1.8880866765975952,
          "9": 0.23727168142795563,
          "10": 9.278393745422363,
          "11": 4.720750331878662,
          "12": -15.366663932800293,
          "13": 4.558684349060059,
          "14": 10.563924789428711,
          "15": -5.853551387786865,
          "16": -0.3362830877304077,
          "17": -6.033547878265381,
          "18": -8.718526840209961,
          "19": 7.548793315887451,
          "20": -3.048330068588257,
          "21": -1.8745702505111694,
          "22": 0.07764886319637299,
          "23": -6.080181121826172,
          "24": 6.439720153808594,
          "25": 0.0020340727642178535,
          "26": -3.7844533920288086,
          "27": 7.647110939025879,
          "28": -0.3578944802284241,
          "29": 7.740536212921143
        }
      },
      "14": {
        "bias": -1.841200351715088,
        "weights": {
          "0": -0.8635011315345764,
          "1": -0.6361505389213562,
          "2": -0.37799251079559326,
          "3": 9.714982986450195,
          "4": -1.0790492296218872,
          "5": 0.024408267810940742,
          "6": 11.635436058044434,
          "7": -0.25773388147354126,
          "8": -0.5248605012893677,
          "9": -0.7717755436897278,
          "10": -0.6766903400421143,
          "11": -0.557817280292511,
          "12": 6.29852294921875,
          "13": -2.215430498123169,
          "14": 2.0450148582458496,
          "15": 1.6692785024642944,
          "16": -0.2784535586833954,
          "17": 5.375649929046631,
          "18": 3.4407334327697754,
          "19": 8.96024227142334,
          "20": -0.5083374977111816,
          "21": 6.818552494049072,
          "22": -0.18284408748149872,
          "23": 11.946029663085938,
          "24": -0.4660738706588745,
          "25": 0.014316705986857414,
          "26": -0.6955492496490479,
          "27": -0.6411651372909546,
          "28": 0.06868718564510345,
          "29": 8.909889221191406
        }
      },
      "15": {
        "bias": -4.431504726409912,
        "weights": {
          "0": 2.849057912826538,
          "1": -1.1767443418502808,
          "2": -7.377673625946045,
          "3": -13.553085327148438,
          "4": 3.819791316986084,
          "5": -2.2285525798797607,
          "6": 0.48162126541137695,
          "7": -1.9073002338409424,
          "8": 0.4899331033229828,
          "9": -10.83755874633789,
          "10": 10.130091667175293,
          "11": 4.681606292724609,
          "12": -6.334359169006348,
          "13": -26.438831329345703,
          "14": 18.41623306274414,
          "15": 2.2424745559692383,
          "16": -6.176219463348389,
          "17": 0.5697245597839355,
          "18": 0.8816452026367188,
          "19": 0.12752677500247955,
          "20": -1.6578333377838135,
          "21": 4.5955891609191895,
          "22": -3.4856534004211426,
          "23": -19.751537322998047,
          "24": 4.9658050537109375,
          "25": -1.9640932083129883,
          "26": -2.513758897781372,
          "27": -1.3246488571166992,
          "28": -0.3795369565486908,
          "29": 12.189435958862305
        }
      }
    },
    {
      "0": {
        "bias": -0.7814981341362,
        "weights": {
          "0": -9.89309024810791,
          "1": -2.1587131023406982,
          "2": -19.087594985961914,
          "3": 8.902241706848145,
          "4": -9.433493614196777,
          "5": -3.8093817234039307,
          "6": -10.290810585021973,
          "7": -9.801765441894531,
          "8": -13.20462703704834,
          "9": -3.297957181930542,
          "10": -6.458901405334473,
          "11": -9.28377628326416,
          "12": -7.284181594848633,
          "13": -7.532201766967773,
          "14": 14.4201078414917,
          "15": -6.889249801635742
        }
      },
      "1": {
        "bias": 8.13521957397461,
        "weights": {
          "0": -8.323368072509766,
          "1": -13.225859642028809,
          "2": 1.3120266199111938,
          "3": -10.392538070678711,
          "4": -10.216534614562988,
          "5": -3.73039174079895,
          "6": 5.970143795013428,
          "7": -4.447450160980225,
          "8": 14.061830520629883,
          "9": -27.161617279052734,
          "10": -14.514688491821289,
          "11": 18.258277893066406,
          "12": 27.21752166748047,
          "13": 0.3647373616695404,
          "14": 16.1391544342041,
          "15": 10.642386436462402
        }
      },
      "2": {
        "bias": -3.594837188720703,
        "weights": {
          "0": -6.967923164367676,
          "1": -3.3176517486572266,
          "2": 3.9813475608825684,
          "3": 8.041728019714355,
          "4": -11.632120132446289,
          "5": -2.840837240219116,
          "6": 8.589386940002441,
          "7": -6.803043365478516,
          "8": -12.492768287658691,
          "9": -4.779329299926758,
          "10": -2.227099657058716,
          "11": -7.585839748382568,
          "12": -5.71489143371582,
          "13": 0.6850579977035522,
          "14": -13.875679016113281,
          "15": 14.23521614074707
        }
      }
    },
    {
      "score": {
        "bias": -1.0735758543014526,
        "weights": {
          "0": 5.2630391120910645,
          "1": 5.589414596557617,
          "2": -0.053060516715049744
        }
      },
      "low-rtt": {
        "bias": 10.312653541564941,
        "weights": {
          "0": -13.29773235321045,
          "1": 18.18722915649414,
          "2": 10.426334381103516
        }
      },
      "high-jitter": {
        "bias": 3.413581609725952,
        "weights": {
          "0": -17.07750701904297,
          "1": -7.722695350646973,
          "2": -7.957817554473877
        }
      },
      "wifi": {
        "bias": 16.66939353942871,
        "weights": {
          "0": -3.808173656463623,
          "1": -13.058845520019531,
          "2": -5.279971122741699
        }
      },
      "low-jitter": {
        "bias": -3.413581371307373,
        "weights": {
          "0": 17.07744598388672,
          "1": 7.722695350646973,
          "2": 7.957815647125244
        }
      },
      "4g": {
        "bias": -16.66950225830078,
        "weights": {
          "0": 3.808173179626465,
          "1": 13.058956146240234,
          "2": 5.279969215393066
        }
      },
      "high-rtt": {
        "bias": -10.3126802444458,
        "weights": {
          "0": 13.297723770141602,
          "1": -18.18661117553711,
          "2": -10.43904972076416
        }
      }
    }
  ],
  "outputLookup": true,
  "inputLookup": true,
  "activation": "sigmoid",
  "trainOpts": {
    "iterations": 20000,
    "errorThresh": 0.005,
    "log": false,
    "logPeriod": 10,
    "learningRate": 0.3,
    "momentum": 0.1,
    "callbackPeriod": 10,
    "beta1": 0.9,
    "beta2": 0.999,
    "epsilon": 1e-8
  },
  "samplingSize": 10,
  "outputSampling": 4
}
